digraph Tree {
node [shape=box] ;
0 [label="X[136] <= 0.5\ngini = 0.5\nsamples = 10312\nvalue = [5100, 5212]"] ;
1 [label="X[220] <= 0.5\ngini = 0.441\nsamples = 7292\nvalue = [4895, 2397]"] ;
0 -> 1 [labeldistance=2.5, labelangle=45, headlabel="True"] ;
2 [label="X[59] <= 0.5\ngini = 0.385\nsamples = 6067\nvalue = [4489, 1578]"] ;
1 -> 2 ;
3 [label="X[634] <= 0.5\ngini = 0.413\nsamples = 5390\nvalue = [3819, 1571]"] ;
2 -> 3 ;
4 [label="X[48] <= 0.5\ngini = 0.404\nsamples = 5292\nvalue = [3806, 1486]"] ;
3 -> 4 ;
5 [label="X[135] <= 0.5\ngini = 0.376\nsamples = 4650\nvalue = [3485, 1165]"] ;
4 -> 5 ;
6 [label="X[14] <= 0.5\ngini = 0.333\nsamples = 3793\nvalue = [2992, 801]"] ;
5 -> 6 ;
7 [label="X[29] <= 0.5\ngini = 0.312\nsamples = 3659\nvalue = [2950, 709]"] ;
6 -> 7 ;
8 [label="X[98] <= 0.5\ngini = 0.269\nsamples = 3260\nvalue = [2737, 523]"] ;
7 -> 8 ;
9 [label="X[64] <= 0.5\ngini = 0.258\nsamples = 3223\nvalue = [2733, 490]"] ;
8 -> 9 ;
10 [label="X[39] <= 0.5\ngini = 0.238\nsamples = 3122\nvalue = [2692, 430]"] ;
9 -> 10 ;
11 [label="X[63] <= 0.5\ngini = 0.221\nsamples = 3068\nvalue = [2679, 389]"] ;
10 -> 11 ;
12 [label="X[122] <= 0.5\ngini = 0.207\nsamples = 3007\nvalue = [2655, 352]"] ;
11 -> 12 ;
13 [label="X[92] <= 0.5\ngini = 0.189\nsamples = 2889\nvalue = [2583, 306]"] ;
12 -> 13 ;
14 [label="gini = 0.175\nsamples = 2769\nvalue = [2501, 268]"] ;
13 -> 14 ;
15 [label="gini = 0.433\nsamples = 120\nvalue = [82, 38]"] ;
13 -> 15 ;
16 [label="X[817] <= 0.5\ngini = 0.476\nsamples = 118\nvalue = [72, 46]"] ;
12 -> 16 ;
17 [label="gini = 0.5\nsamples = 81\nvalue = [41, 40]"] ;
16 -> 17 ;
18 [label="gini = 0.272\nsamples = 37\nvalue = [31, 6]"] ;
16 -> 18 ;
19 [label="X[241] <= 0.5\ngini = 0.477\nsamples = 61\nvalue = [24, 37]"] ;
11 -> 19 ;
20 [label="X[250] <= 0.5\ngini = 0.422\nsamples = 53\nvalue = [16, 37]"] ;
19 -> 20 ;
21 [label="gini = 0.292\nsamples = 45\nvalue = [8, 37]"] ;
20 -> 21 ;
22 [label="gini = 0.0\nsamples = 8\nvalue = [8, 0]"] ;
20 -> 22 ;
23 [label="gini = 0.0\nsamples = 8\nvalue = [8, 0]"] ;
19 -> 23 ;
24 [label="X[651] <= 0.5\ngini = 0.366\nsamples = 54\nvalue = [13, 41]"] ;
10 -> 24 ;
25 [label="X[412] <= 0.5\ngini = 0.315\nsamples = 51\nvalue = [10, 41]"] ;
24 -> 25 ;
26 [label="X[530] <= 0.5\ngini = 0.227\nsamples = 46\nvalue = [6, 40]"] ;
25 -> 26 ;
27 [label="gini = 0.133\nsamples = 42\nvalue = [3, 39]"] ;
26 -> 27 ;
28 [label="gini = 0.375\nsamples = 4\nvalue = [3, 1]"] ;
26 -> 28 ;
29 [label="X[1049] <= 0.5\ngini = 0.32\nsamples = 5\nvalue = [4, 1]"] ;
25 -> 29 ;
30 [label="gini = 0.0\nsamples = 4\nvalue = [4, 0]"] ;
29 -> 30 ;
31 [label="gini = 0.0\nsamples = 1\nvalue = [0, 1]"] ;
29 -> 31 ;
32 [label="gini = 0.0\nsamples = 3\nvalue = [3, 0]"] ;
24 -> 32 ;
33 [label="X[230] <= 0.5\ngini = 0.482\nsamples = 101\nvalue = [41, 60]"] ;
9 -> 33 ;
34 [label="X[1225] <= 0.5\ngini = 0.434\nsamples = 88\nvalue = [28, 60]"] ;
33 -> 34 ;
35 [label="X[177] <= 0.5\ngini = 0.497\nsamples = 52\nvalue = [24, 28]"] ;
34 -> 35 ;
36 [label="X[881] <= 0.5\ngini = 0.444\nsamples = 27\nvalue = [18, 9]"] ;
35 -> 36 ;
37 [label="gini = 0.298\nsamples = 22\nvalue = [18, 4]"] ;
36 -> 37 ;
38 [label="gini = 0.0\nsamples = 5\nvalue = [0, 5]"] ;
36 -> 38 ;
39 [label="X[915] <= 0.5\ngini = 0.365\nsamples = 25\nvalue = [6, 19]"] ;
35 -> 39 ;
40 [label="gini = 0.236\nsamples = 22\nvalue = [3, 19]"] ;
39 -> 40 ;
41 [label="gini = 0.0\nsamples = 3\nvalue = [3, 0]"] ;
39 -> 41 ;
42 [label="X[847] <= 0.5\ngini = 0.198\nsamples = 36\nvalue = [4, 32]"] ;
34 -> 42 ;
43 [label="X[1066] <= 0.5\ngini = 0.114\nsamples = 33\nvalue = [2, 31]"] ;
42 -> 43 ;
44 [label="gini = 0.061\nsamples = 32\nvalue = [1, 31]"] ;
43 -> 44 ;
45 [label="gini = 0.0\nsamples = 1\nvalue = [1, 0]"] ;
43 -> 45 ;
46 [label="X[977] <= 0.5\ngini = 0.444\nsamples = 3\nvalue = [2, 1]"] ;
42 -> 46 ;
47 [label="gini = 0.0\nsamples = 2\nvalue = [2, 0]"] ;
46 -> 47 ;
48 [label="gini = 0.0\nsamples = 1\nvalue = [0, 1]"] ;
46 -> 48 ;
49 [label="gini = 0.0\nsamples = 13\nvalue = [13, 0]"] ;
33 -> 49 ;
50 [label="X[465] <= 0.5\ngini = 0.193\nsamples = 37\nvalue = [4, 33]"] ;
8 -> 50 ;
51 [label="X[919] <= 0.5\ngini = 0.108\nsamples = 35\nvalue = [2, 33]"] ;
50 -> 51 ;
52 [label="X[517] <= 0.5\ngini = 0.057\nsamples = 34\nvalue = [1, 33]"] ;
51 -> 52 ;
53 [label="gini = 0.0\nsamples = 33\nvalue = [0, 33]"] ;
52 -> 53 ;
54 [label="gini = 0.0\nsamples = 1\nvalue = [1, 0]"] ;
52 -> 54 ;
55 [label="gini = 0.0\nsamples = 1\nvalue = [1, 0]"] ;
51 -> 55 ;
56 [label="gini = 0.0\nsamples = 2\nvalue = [2, 0]"] ;
50 -> 56 ;
57 [label="X[241] <= 0.5\ngini = 0.498\nsamples = 399\nvalue = [213, 186]"] ;
7 -> 57 ;
58 [label="X[230] <= 0.5\ngini = 0.5\nsamples = 343\nvalue = [167, 176]"] ;
57 -> 58 ;
59 [label="X[250] <= 0.5\ngini = 0.49\nsamples = 290\nvalue = [125, 165]"] ;
58 -> 59 ;
60 [label="X[243] <= 0.5\ngini = 0.473\nsamples = 261\nvalue = [100, 161]"] ;
59 -> 60 ;
61 [label="X[192] <= 0.5\ngini = 0.438\nsamples = 207\nvalue = [67, 140]"] ;
60 -> 61 ;
62 [label="X[823] <= 0.5\ngini = 0.415\nsamples = 194\nvalue = [57, 137]"] ;
61 -> 62 ;
63 [label="gini = 0.453\nsamples = 159\nvalue = [55, 104]"] ;
62 -> 63 ;
64 [label="gini = 0.108\nsamples = 35\nvalue = [2, 33]"] ;
62 -> 64 ;
65 [label="X[378] <= 0.5\ngini = 0.355\nsamples = 13\nvalue = [10, 3]"] ;
61 -> 65 ;
66 [label="gini = 0.165\nsamples = 11\nvalue = [10, 1]"] ;
65 -> 66 ;
67 [label="gini = 0.0\nsamples = 2\nvalue = [0, 2]"] ;
65 -> 67 ;
68 [label="X[647] <= 0.5\ngini = 0.475\nsamples = 54\nvalue = [33, 21]"] ;
60 -> 68 ;
69 [label="X[738] <= 0.5\ngini = 0.411\nsamples = 45\nvalue = [32, 13]"] ;
68 -> 69 ;
70 [label="gini = 0.491\nsamples = 30\nvalue = [17, 13]"] ;
69 -> 70 ;
71 [label="gini = 0.0\nsamples = 15\nvalue = [15, 0]"] ;
69 -> 71 ;
72 [label="X[167] <= 0.5\ngini = 0.198\nsamples = 9\nvalue = [1, 8]"] ;
68 -> 72 ;
73 [label="gini = 0.0\nsamples = 8\nvalue = [0, 8]"] ;
72 -> 73 ;
74 [label="gini = 0.0\nsamples = 1\nvalue = [1, 0]"] ;
72 -> 74 ;
75 [label="X[804] <= 0.5\ngini = 0.238\nsamples = 29\nvalue = [25, 4]"] ;
59 -> 75 ;
76 [label="X[1199] <= 0.5\ngini = 0.137\nsamples = 27\nvalue = [25, 2]"] ;
75 -> 76 ;
77 [label="gini = 0.0\nsamples = 25\nvalue = [25, 0]"] ;
76 -> 77 ;
78 [label="gini = 0.0\nsamples = 2\nvalue = [0, 2]"] ;
76 -> 78 ;
79 [label="gini = 0.0\nsamples = 2\nvalue = [0, 2]"] ;
75 -> 79 ;
80 [label="X[343] <= 0.5\ngini = 0.329\nsamples = 53\nvalue = [42, 11]"] ;
58 -> 80 ;
81 [label="X[207] <= 0.5\ngini = 0.269\nsamples = 50\nvalue = [42, 8]"] ;
80 -> 81 ;
82 [label="X[1224] <= 0.5\ngini = 0.1\nsamples = 38\nvalue = [36, 2]"] ;
81 -> 82 ;
83 [label="gini = 0.0\nsamples = 35\nvalue = [35, 0]"] ;
82 -> 83 ;
84 [label="X[977] <= 0.5\ngini = 0.444\nsamples = 3\nvalue = [1, 2]"] ;
82 -> 84 ;
85 [label="gini = 0.0\nsamples = 2\nvalue = [0, 2]"] ;
84 -> 85 ;
86 [label="gini = 0.0\nsamples = 1\nvalue = [1, 0]"] ;
84 -> 86 ;
87 [label="X[639] <= 0.5\ngini = 0.5\nsamples = 12\nvalue = [6, 6]"] ;
81 -> 87 ;
88 [label="X[262] <= 0.5\ngini = 0.245\nsamples = 7\nvalue = [6, 1]"] ;
87 -> 88 ;
89 [label="gini = 0.0\nsamples = 6\nvalue = [6, 0]"] ;
88 -> 89 ;
90 [label="gini = 0.0\nsamples = 1\nvalue = [0, 1]"] ;
88 -> 90 ;
91 [label="gini = 0.0\nsamples = 5\nvalue = [0, 5]"] ;
87 -> 91 ;
92 [label="gini = 0.0\nsamples = 3\nvalue = [0, 3]"] ;
80 -> 92 ;
93 [label="X[162] <= 0.5\ngini = 0.293\nsamples = 56\nvalue = [46, 10]"] ;
57 -> 93 ;
94 [label="X[1022] <= 0.5\ngini = 0.252\nsamples = 54\nvalue = [46, 8]"] ;
93 -> 94 ;
95 [label="X[1162] <= 0.5\ngini = 0.156\nsamples = 47\nvalue = [43, 4]"] ;
94 -> 95 ;
96 [label="X[815] <= 0.5\ngini = 0.049\nsamples = 40\nvalue = [39, 1]"] ;
95 -> 96 ;
97 [label="gini = 0.0\nsamples = 39\nvalue = [39, 0]"] ;
96 -> 97 ;
98 [label="gini = 0.0\nsamples = 1\nvalue = [0, 1]"] ;
96 -> 98 ;
99 [label="X[1157] <= 0.5\ngini = 0.49\nsamples = 7\nvalue = [4, 3]"] ;
95 -> 99 ;
100 [label="gini = 0.0\nsamples = 4\nvalue = [4, 0]"] ;
99 -> 100 ;
101 [label="gini = 0.0\nsamples = 3\nvalue = [0, 3]"] ;
99 -> 101 ;
102 [label="X[665] <= 0.5\ngini = 0.49\nsamples = 7\nvalue = [3, 4]"] ;
94 -> 102 ;
103 [label="gini = 0.0\nsamples = 3\nvalue = [0, 3]"] ;
102 -> 103 ;
104 [label="X[945] <= 0.5\ngini = 0.375\nsamples = 4\nvalue = [3, 1]"] ;
102 -> 104 ;
105 [label="gini = 0.0\nsamples = 3\nvalue = [3, 0]"] ;
104 -> 105 ;
106 [label="gini = 0.0\nsamples = 1\nvalue = [0, 1]"] ;
104 -> 106 ;
107 [label="gini = 0.0\nsamples = 2\nvalue = [0, 2]"] ;
93 -> 107 ;
108 [label="X[250] <= 0.5\ngini = 0.43\nsamples = 134\nvalue = [42, 92]"] ;
6 -> 108 ;
109 [label="X[639] <= 0.5\ngini = 0.396\nsamples = 125\nvalue = [34, 91]"] ;
108 -> 109 ;
110 [label="X[230] <= 0.5\ngini = 0.464\nsamples = 82\nvalue = [30, 52]"] ;
109 -> 110 ;
111 [label="X[192] <= 0.5\ngini = 0.412\nsamples = 69\nvalue = [20, 49]"] ;
110 -> 111 ;
112 [label="X[340] <= 0.5\ngini = 0.354\nsamples = 61\nvalue = [14, 47]"] ;
111 -> 112 ;
113 [label="X[1] <= 8.5\ngini = 0.254\nsamples = 47\nvalue = [7, 40]"] ;
112 -> 113 ;
114 [label="X[616] <= 0.5\ngini = 0.136\nsamples = 41\nvalue = [3, 38]"] ;
113 -> 114 ;
115 [label="gini = 0.05\nsamples = 39\nvalue = [1, 38]"] ;
114 -> 115 ;
116 [label="gini = 0.0\nsamples = 2\nvalue = [2, 0]"] ;
114 -> 116 ;
117 [label="X[1040] <= 0.5\ngini = 0.444\nsamples = 6\nvalue = [4, 2]"] ;
113 -> 117 ;
118 [label="gini = 0.0\nsamples = 4\nvalue = [4, 0]"] ;
117 -> 118 ;
119 [label="gini = 0.0\nsamples = 2\nvalue = [0, 2]"] ;
117 -> 119 ;
120 [label="X[375] <= 0.5\ngini = 0.5\nsamples = 14\nvalue = [7, 7]"] ;
112 -> 120 ;
121 [label="gini = 0.0\nsamples = 5\nvalue = [5, 0]"] ;
120 -> 121 ;
122 [label="X[406] <= 0.5\ngini = 0.346\nsamples = 9\nvalue = [2, 7]"] ;
120 -> 122 ;
123 [label="gini = 0.0\nsamples = 7\nvalue = [0, 7]"] ;
122 -> 123 ;
124 [label="gini = 0.0\nsamples = 2\nvalue = [2, 0]"] ;
122 -> 124 ;
125 [label="X[1083] <= 0.5\ngini = 0.375\nsamples = 8\nvalue = [6, 2]"] ;
111 -> 125 ;
126 [label="gini = 0.0\nsamples = 6\nvalue = [6, 0]"] ;
125 -> 126 ;
127 [label="gini = 0.0\nsamples = 2\nvalue = [0, 2]"] ;
125 -> 127 ;
128 [label="X[274] <= 0.5\ngini = 0.355\nsamples = 13\nvalue = [10, 3]"] ;
110 -> 128 ;
129 [label="gini = 0.0\nsamples = 9\nvalue = [9, 0]"] ;
128 -> 129 ;
130 [label="X[1038] <= 0.5\ngini = 0.375\nsamples = 4\nvalue = [1, 3]"] ;
128 -> 130 ;
131 [label="gini = 0.0\nsamples = 3\nvalue = [0, 3]"] ;
130 -> 131 ;
132 [label="gini = 0.0\nsamples = 1\nvalue = [1, 0]"] ;
130 -> 132 ;
133 [label="X[1194] <= 0.5\ngini = 0.169\nsamples = 43\nvalue = [4, 39]"] ;
109 -> 133 ;
134 [label="X[512] <= 0.5\ngini = 0.49\nsamples = 7\nvalue = [3, 4]"] ;
133 -> 134 ;
135 [label="X[204] <= 0.5\ngini = 0.375\nsamples = 4\nvalue = [3, 1]"] ;
134 -> 135 ;
136 [label="gini = 0.0\nsamples = 3\nvalue = [3, 0]"] ;
135 -> 136 ;
137 [label="gini = 0.0\nsamples = 1\nvalue = [0, 1]"] ;
135 -> 137 ;
138 [label="gini = 0.0\nsamples = 3\nvalue = [0, 3]"] ;
134 -> 138 ;
139 [label="X[909] <= 0.5\ngini = 0.054\nsamples = 36\nvalue = [1, 35]"] ;
133 -> 139 ;
140 [label="gini = 0.0\nsamples = 35\nvalue = [0, 35]"] ;
139 -> 140 ;
141 [label="gini = 0.0\nsamples = 1\nvalue = [1, 0]"] ;
139 -> 141 ;
142 [label="X[152] <= 0.5\ngini = 0.198\nsamples = 9\nvalue = [8, 1]"] ;
108 -> 142 ;
143 [label="gini = 0.0\nsamples = 8\nvalue = [8, 0]"] ;
142 -> 143 ;
144 [label="gini = 0.0\nsamples = 1\nvalue = [0, 1]"] ;
142 -> 144 ;
145 [label="X[230] <= 0.5\ngini = 0.489\nsamples = 857\nvalue = [493, 364]"] ;
5 -> 145 ;
146 [label="X[250] <= 0.5\ngini = 0.498\nsamples = 754\nvalue = [400, 354]"] ;
145 -> 146 ;
147 [label="X[241] <= 0.5\ngini = 0.5\nsamples = 689\nvalue = [338, 351]"] ;
146 -> 147 ;
148 [label="X[243] <= 0.5\ngini = 0.49\nsamples = 570\nvalue = [245, 325]"] ;
147 -> 148 ;
149 [label="X[745] <= 0.5\ngini = 0.459\nsamples = 451\nvalue = [161, 290]"] ;
148 -> 149 ;
150 [label="X[833] <= 0.5\ngini = 0.407\nsamples = 330\nvalue = [94, 236]"] ;
149 -> 150 ;
151 [label="X[499] <= 0.5\ngini = 0.45\nsamples = 252\nvalue = [86, 166]"] ;
150 -> 151 ;
152 [label="X[1041] <= 0.5\ngini = 0.479\nsamples = 194\nvalue = [77, 117]"] ;
151 -> 152 ;
153 [label="gini = 0.498\nsamples = 150\nvalue = [70, 80]"] ;
152 -> 153 ;
154 [label="gini = 0.268\nsamples = 44\nvalue = [7, 37]"] ;
152 -> 154 ;
155 [label="X[721] <= 0.5\ngini = 0.262\nsamples = 58\nvalue = [9, 49]"] ;
151 -> 155 ;
156 [label="gini = 0.219\nsamples = 56\nvalue = [7, 49]"] ;
155 -> 156 ;
157 [label="gini = 0.0\nsamples = 2\nvalue = [2, 0]"] ;
155 -> 157 ;
158 [label="X[348] <= 0.5\ngini = 0.184\nsamples = 78\nvalue = [8, 70]"] ;
150 -> 158 ;
159 [label="X[971] <= 0.5\ngini = 0.065\nsamples = 59\nvalue = [2, 57]"] ;
158 -> 159 ;
160 [label="gini = 0.034\nsamples = 57\nvalue = [1, 56]"] ;
159 -> 160 ;
161 [label="gini = 0.5\nsamples = 2\nvalue = [1, 1]"] ;
159 -> 161 ;
162 [label="X[610] <= 0.5\ngini = 0.432\nsamples = 19\nvalue = [6, 13]"] ;
158 -> 162 ;
163 [label="gini = 0.305\nsamples = 16\nvalue = [3, 13]"] ;
162 -> 163 ;
164 [label="gini = 0.0\nsamples = 3\nvalue = [3, 0]"] ;
162 -> 164 ;
165 [label="X[425] <= 0.5\ngini = 0.494\nsamples = 121\nvalue = [67, 54]"] ;
149 -> 165 ;
166 [label="X[274] <= 0.5\ngini = 0.5\nsamples = 104\nvalue = [51, 53]"] ;
165 -> 166 ;
167 [label="X[449] <= 0.5\ngini = 0.465\nsamples = 68\nvalue = [25, 43]"] ;
166 -> 167 ;
168 [label="gini = 0.414\nsamples = 58\nvalue = [17, 41]"] ;
167 -> 168 ;
169 [label="gini = 0.32\nsamples = 10\nvalue = [8, 2]"] ;
167 -> 169 ;
170 [label="X[928] <= 0.5\ngini = 0.401\nsamples = 36\nvalue = [26, 10]"] ;
166 -> 170 ;
171 [label="gini = 0.252\nsamples = 27\nvalue = [23, 4]"] ;
170 -> 171 ;
172 [label="gini = 0.444\nsamples = 9\nvalue = [3, 6]"] ;
170 -> 172 ;
173 [label="X[204] <= 0.5\ngini = 0.111\nsamples = 17\nvalue = [16, 1]"] ;
165 -> 173 ;
174 [label="gini = 0.0\nsamples = 16\nvalue = [16, 0]"] ;
173 -> 174 ;
175 [label="gini = 0.0\nsamples = 1\nvalue = [0, 1]"] ;
173 -> 175 ;
176 [label="X[1113] <= 0.5\ngini = 0.415\nsamples = 119\nvalue = [84, 35]"] ;
148 -> 176 ;
177 [label="X[654] <= 0.5\ngini = 0.363\nsamples = 109\nvalue = [83, 26]"] ;
176 -> 177 ;
178 [label="X[444] <= 0.5\ngini = 0.28\nsamples = 89\nvalue = [74, 15]"] ;
177 -> 178 ;
179 [label="X[748] <= 0.5\ngini = 0.214\nsamples = 82\nvalue = [72, 10]"] ;
178 -> 179 ;
180 [label="gini = 0.18\nsamples = 80\nvalue = [72, 8]"] ;
179 -> 180 ;
181 [label="gini = 0.0\nsamples = 2\nvalue = [0, 2]"] ;
179 -> 181 ;
182 [label="X[603] <= 0.5\ngini = 0.408\nsamples = 7\nvalue = [2, 5]"] ;
178 -> 182 ;
183 [label="gini = 0.0\nsamples = 5\nvalue = [0, 5]"] ;
182 -> 183 ;
184 [label="gini = 0.0\nsamples = 2\nvalue = [2, 0]"] ;
182 -> 184 ;
185 [label="X[775] <= 0.5\ngini = 0.495\nsamples = 20\nvalue = [9, 11]"] ;
177 -> 185 ;
186 [label="X[431] <= 0.5\ngini = 0.278\nsamples = 12\nvalue = [2, 10]"] ;
185 -> 186 ;
187 [label="gini = 0.0\nsamples = 10\nvalue = [0, 10]"] ;
186 -> 187 ;
188 [label="gini = 0.0\nsamples = 2\nvalue = [2, 0]"] ;
186 -> 188 ;
189 [label="X[1033] <= 0.5\ngini = 0.219\nsamples = 8\nvalue = [7, 1]"] ;
185 -> 189 ;
190 [label="gini = 0.0\nsamples = 7\nvalue = [7, 0]"] ;
189 -> 190 ;
191 [label="gini = 0.0\nsamples = 1\nvalue = [0, 1]"] ;
189 -> 191 ;
192 [label="X[1059] <= 0.5\ngini = 0.18\nsamples = 10\nvalue = [1, 9]"] ;
176 -> 192 ;
193 [label="gini = 0.0\nsamples = 9\nvalue = [0, 9]"] ;
192 -> 193 ;
194 [label="gini = 0.0\nsamples = 1\nvalue = [1, 0]"] ;
192 -> 194 ;
195 [label="X[640] <= 0.5\ngini = 0.342\nsamples = 119\nvalue = [93, 26]"] ;
147 -> 195 ;
196 [label="X[155] <= 0.5\ngini = 0.269\nsamples = 106\nvalue = [89, 17]"] ;
195 -> 196 ;
197 [label="X[733] <= 0.5\ngini = 0.139\nsamples = 80\nvalue = [74, 6]"] ;
196 -> 197 ;
198 [label="X[763] <= 0.5\ngini = 0.098\nsamples = 77\nvalue = [73, 4]"] ;
197 -> 198 ;
199 [label="X[1000] <= 0.5\ngini = 0.076\nsamples = 76\nvalue = [73, 3]"] ;
198 -> 199 ;
200 [label="gini = 0.052\nsamples = 75\nvalue = [73, 2]"] ;
199 -> 200 ;
201 [label="gini = 0.0\nsamples = 1\nvalue = [0, 1]"] ;
199 -> 201 ;
202 [label="gini = 0.0\nsamples = 1\nvalue = [0, 1]"] ;
198 -> 202 ;
203 [label="X[1220] <= 0.5\ngini = 0.444\nsamples = 3\nvalue = [1, 2]"] ;
197 -> 203 ;
204 [label="gini = 0.0\nsamples = 1\nvalue = [1, 0]"] ;
203 -> 204 ;
205 [label="gini = 0.0\nsamples = 2\nvalue = [0, 2]"] ;
203 -> 205 ;
206 [label="X[888] <= 0.5\ngini = 0.488\nsamples = 26\nvalue = [15, 11]"] ;
196 -> 206 ;
207 [label="X[177] <= 0.5\ngini = 0.388\nsamples = 19\nvalue = [14, 5]"] ;
206 -> 207 ;
208 [label="X[483] <= 0.5\ngini = 0.133\nsamples = 14\nvalue = [13, 1]"] ;
207 -> 208 ;
209 [label="gini = 0.0\nsamples = 13\nvalue = [13, 0]"] ;
208 -> 209 ;
210 [label="gini = 0.0\nsamples = 1\nvalue = [0, 1]"] ;
208 -> 210 ;
211 [label="X[568] <= 0.5\ngini = 0.32\nsamples = 5\nvalue = [1, 4]"] ;
207 -> 211 ;
212 [label="gini = 0.0\nsamples = 4\nvalue = [0, 4]"] ;
211 -> 212 ;
213 [label="gini = 0.0\nsamples = 1\nvalue = [1, 0]"] ;
211 -> 213 ;
214 [label="X[1145] <= 0.5\ngini = 0.245\nsamples = 7\nvalue = [1, 6]"] ;
206 -> 214 ;
215 [label="gini = 0.0\nsamples = 6\nvalue = [0, 6]"] ;
214 -> 215 ;
216 [label="gini = 0.0\nsamples = 1\nvalue = [1, 0]"] ;
214 -> 216 ;
217 [label="X[949] <= 0.5\ngini = 0.426\nsamples = 13\nvalue = [4, 9]"] ;
195 -> 217 ;
218 [label="X[7] <= 0.5\ngini = 0.18\nsamples = 10\nvalue = [1, 9]"] ;
217 -> 218 ;
219 [label="gini = 0.0\nsamples = 1\nvalue = [1, 0]"] ;
218 -> 219 ;
220 [label="gini = 0.0\nsamples = 9\nvalue = [0, 9]"] ;
218 -> 220 ;
221 [label="gini = 0.0\nsamples = 3\nvalue = [3, 0]"] ;
217 -> 221 ;
222 [label="X[264] <= 0.5\ngini = 0.088\nsamples = 65\nvalue = [62, 3]"] ;
146 -> 222 ;
223 [label="X[424] <= 0.5\ngini = 0.032\nsamples = 62\nvalue = [61, 1]"] ;
222 -> 223 ;
224 [label="gini = 0.0\nsamples = 60\nvalue = [60, 0]"] ;
223 -> 224 ;
225 [label="X[1095] <= 0.5\ngini = 0.5\nsamples = 2\nvalue = [1, 1]"] ;
223 -> 225 ;
226 [label="gini = 0.0\nsamples = 1\nvalue = [0, 1]"] ;
225 -> 226 ;
227 [label="gini = 0.0\nsamples = 1\nvalue = [1, 0]"] ;
225 -> 227 ;
228 [label="X[409] <= 0.5\ngini = 0.444\nsamples = 3\nvalue = [1, 2]"] ;
222 -> 228 ;
229 [label="gini = 0.0\nsamples = 2\nvalue = [0, 2]"] ;
228 -> 229 ;
230 [label="gini = 0.0\nsamples = 1\nvalue = [1, 0]"] ;
228 -> 230 ;
231 [label="X[1093] <= 0.5\ngini = 0.175\nsamples = 103\nvalue = [93, 10]"] ;
145 -> 231 ;
232 [label="X[616] <= 0.5\ngini = 0.146\nsamples = 101\nvalue = [93, 8]"] ;
231 -> 232 ;
233 [label="X[436] <= 0.5\ngini = 0.084\nsamples = 91\nvalue = [87, 4]"] ;
232 -> 233 ;
234 [label="X[391] <= 0.5\ngini = 0.064\nsamples = 90\nvalue = [87, 3]"] ;
233 -> 234 ;
235 [label="X[681] <= 0.5\ngini = 0.044\nsamples = 89\nvalue = [87, 2]"] ;
234 -> 235 ;
236 [label="X[516] <= 0.5\ngini = 0.408\nsamples = 7\nvalue = [5, 2]"] ;
235 -> 236 ;
237 [label="gini = 0.0\nsamples = 2\nvalue = [0, 2]"] ;
236 -> 237 ;
238 [label="gini = 0.0\nsamples = 5\nvalue = [5, 0]"] ;
236 -> 238 ;
239 [label="gini = 0.0\nsamples = 82\nvalue = [82, 0]"] ;
235 -> 239 ;
240 [label="gini = 0.0\nsamples = 1\nvalue = [0, 1]"] ;
234 -> 240 ;
241 [label="gini = 0.0\nsamples = 1\nvalue = [0, 1]"] ;
233 -> 241 ;
242 [label="X[7] <= 0.5\ngini = 0.48\nsamples = 10\nvalue = [6, 4]"] ;
232 -> 242 ;
243 [label="X[463] <= 0.5\ngini = 0.32\nsamples = 5\nvalue = [1, 4]"] ;
242 -> 243 ;
244 [label="gini = 0.0\nsamples = 4\nvalue = [0, 4]"] ;
243 -> 244 ;
245 [label="gini = 0.0\nsamples = 1\nvalue = [1, 0]"] ;
243 -> 245 ;
246 [label="gini = 0.0\nsamples = 5\nvalue = [5, 0]"] ;
242 -> 246 ;
247 [label="gini = 0.0\nsamples = 2\nvalue = [0, 2]"] ;
231 -> 247 ;
248 [label="X[155] <= 0.5\ngini = 0.5\nsamples = 642\nvalue = [321, 321]"] ;
4 -> 248 ;
249 [label="X[151] <= 0.5\ngini = 0.482\nsamples = 425\nvalue = [253, 172]"] ;
248 -> 249 ;
250 [label="X[152] <= 0.5\ngini = 0.402\nsamples = 226\nvalue = [163, 63]"] ;
249 -> 250 ;
251 [label="X[837] <= 0.5\ngini = 0.369\nsamples = 213\nvalue = [161, 52]"] ;
250 -> 251 ;
252 [label="X[1001] <= 0.5\ngini = 0.308\nsamples = 184\nvalue = [149, 35]"] ;
251 -> 252 ;
253 [label="X[216] <= 0.5\ngini = 0.271\nsamples = 173\nvalue = [145, 28]"] ;
252 -> 253 ;
254 [label="X[233] <= 0.5\ngini = 0.246\nsamples = 167\nvalue = [143, 24]"] ;
253 -> 254 ;
255 [label="X[218] <= 0.5\ngini = 0.231\nsamples = 165\nvalue = [143, 22]"] ;
254 -> 255 ;
256 [label="X[812] <= 0.5\ngini = 0.209\nsamples = 160\nvalue = [141, 19]"] ;
255 -> 256 ;
257 [label="gini = 0.136\nsamples = 123\nvalue = [114, 9]"] ;
256 -> 257 ;
258 [label="gini = 0.394\nsamples = 37\nvalue = [27, 10]"] ;
256 -> 258 ;
259 [label="X[1180] <= 0.5\ngini = 0.48\nsamples = 5\nvalue = [2, 3]"] ;
255 -> 259 ;
260 [label="gini = 0.0\nsamples = 2\nvalue = [2, 0]"] ;
259 -> 260 ;
261 [label="gini = 0.0\nsamples = 3\nvalue = [0, 3]"] ;
259 -> 261 ;
262 [label="gini = 0.0\nsamples = 2\nvalue = [0, 2]"] ;
254 -> 262 ;
263 [label="X[1097] <= 0.5\ngini = 0.444\nsamples = 6\nvalue = [2, 4]"] ;
253 -> 263 ;
264 [label="gini = 0.0\nsamples = 4\nvalue = [0, 4]"] ;
263 -> 264 ;
265 [label="gini = 0.0\nsamples = 2\nvalue = [2, 0]"] ;
263 -> 265 ;
266 [label="X[146] <= 0.5\ngini = 0.463\nsamples = 11\nvalue = [4, 7]"] ;
252 -> 266 ;
267 [label="gini = 0.0\nsamples = 3\nvalue = [3, 0]"] ;
266 -> 267 ;
268 [label="X[1212] <= 0.5\ngini = 0.219\nsamples = 8\nvalue = [1, 7]"] ;
266 -> 268 ;
269 [label="gini = 0.0\nsamples = 7\nvalue = [0, 7]"] ;
268 -> 269 ;
270 [label="gini = 0.0\nsamples = 1\nvalue = [1, 0]"] ;
268 -> 270 ;
271 [label="X[244] <= 0.5\ngini = 0.485\nsamples = 29\nvalue = [12, 17]"] ;
251 -> 271 ;
272 [label="X[1039] <= 0.5\ngini = 0.386\nsamples = 23\nvalue = [6, 17]"] ;
271 -> 272 ;
273 [label="X[926] <= 0.5\ngini = 0.255\nsamples = 20\nvalue = [3, 17]"] ;
272 -> 273 ;
274 [label="X[960] <= 0.5\ngini = 0.105\nsamples = 18\nvalue = [1, 17]"] ;
273 -> 274 ;
275 [label="gini = 0.0\nsamples = 17\nvalue = [0, 17]"] ;
274 -> 275 ;
276 [label="gini = 0.0\nsamples = 1\nvalue = [1, 0]"] ;
274 -> 276 ;
277 [label="gini = 0.0\nsamples = 2\nvalue = [2, 0]"] ;
273 -> 277 ;
278 [label="gini = 0.0\nsamples = 3\nvalue = [3, 0]"] ;
272 -> 278 ;
279 [label="gini = 0.0\nsamples = 6\nvalue = [6, 0]"] ;
271 -> 279 ;
280 [label="X[327] <= 0.5\ngini = 0.26\nsamples = 13\nvalue = [2, 11]"] ;
250 -> 280 ;
281 [label="gini = 0.0\nsamples = 10\nvalue = [0, 10]"] ;
280 -> 281 ;
282 [label="X[552] <= 0.5\ngini = 0.444\nsamples = 3\nvalue = [2, 1]"] ;
280 -> 282 ;
283 [label="gini = 0.0\nsamples = 2\nvalue = [2, 0]"] ;
282 -> 283 ;
284 [label="gini = 0.0\nsamples = 1\nvalue = [0, 1]"] ;
282 -> 284 ;
285 [label="X[830] <= 0.5\ngini = 0.495\nsamples = 199\nvalue = [90, 109]"] ;
249 -> 285 ;
286 [label="X[637] <= 0.5\ngini = 0.499\nsamples = 159\nvalue = [83, 76]"] ;
285 -> 286 ;
287 [label="X[325] <= 0.5\ngini = 0.498\nsamples = 140\nvalue = [66, 74]"] ;
286 -> 287 ;
288 [label="X[265] <= 0.5\ngini = 0.485\nsamples = 114\nvalue = [47, 67]"] ;
287 -> 288 ;
289 [label="X[221] <= 0.5\ngini = 0.471\nsamples = 108\nvalue = [41, 67]"] ;
288 -> 289 ;
290 [label="X[716] <= 0.5\ngini = 0.455\nsamples = 103\nvalue = [36, 67]"] ;
289 -> 290 ;
291 [label="X[851] <= 0.5\ngini = 0.488\nsamples = 76\nvalue = [32, 44]"] ;
290 -> 291 ;
292 [label="gini = 0.465\nsamples = 68\nvalue = [25, 43]"] ;
291 -> 292 ;
293 [label="gini = 0.219\nsamples = 8\nvalue = [7, 1]"] ;
291 -> 293 ;
294 [label="X[427] <= 0.5\ngini = 0.252\nsamples = 27\nvalue = [4, 23]"] ;
290 -> 294 ;
295 [label="gini = 0.147\nsamples = 25\nvalue = [2, 23]"] ;
294 -> 295 ;
296 [label="gini = 0.0\nsamples = 2\nvalue = [2, 0]"] ;
294 -> 296 ;
297 [label="gini = 0.0\nsamples = 5\nvalue = [5, 0]"] ;
289 -> 297 ;
298 [label="gini = 0.0\nsamples = 6\nvalue = [6, 0]"] ;
288 -> 298 ;
299 [label="X[914] <= 0.5\ngini = 0.393\nsamples = 26\nvalue = [19, 7]"] ;
287 -> 299 ;
300 [label="X[1080] <= 0.5\ngini = 0.287\nsamples = 23\nvalue = [19, 4]"] ;
299 -> 300 ;
301 [label="X[210] <= 0.5\ngini = 0.111\nsamples = 17\nvalue = [16, 1]"] ;
300 -> 301 ;
302 [label="gini = 0.0\nsamples = 16\nvalue = [16, 0]"] ;
301 -> 302 ;
303 [label="gini = 0.0\nsamples = 1\nvalue = [0, 1]"] ;
301 -> 303 ;
304 [label="X[241] <= 0.5\ngini = 0.5\nsamples = 6\nvalue = [3, 3]"] ;
300 -> 304 ;
305 [label="gini = 0.0\nsamples = 3\nvalue = [0, 3]"] ;
304 -> 305 ;
306 [label="gini = 0.0\nsamples = 3\nvalue = [3, 0]"] ;
304 -> 306 ;
307 [label="gini = 0.0\nsamples = 3\nvalue = [0, 3]"] ;
299 -> 307 ;
308 [label="X[1088] <= 0.5\ngini = 0.188\nsamples = 19\nvalue = [17, 2]"] ;
286 -> 308 ;
309 [label="X[603] <= 0.5\ngini = 0.105\nsamples = 18\nvalue = [17, 1]"] ;
308 -> 309 ;
310 [label="gini = 0.0\nsamples = 17\nvalue = [17, 0]"] ;
309 -> 310 ;
311 [label="gini = 0.0\nsamples = 1\nvalue = [0, 1]"] ;
309 -> 311 ;
312 [label="gini = 0.0\nsamples = 1\nvalue = [0, 1]"] ;
308 -> 312 ;
313 [label="X[147] <= 0.5\ngini = 0.289\nsamples = 40\nvalue = [7, 33]"] ;
285 -> 313 ;
314 [label="X[705] <= 0.5\ngini = 0.108\nsamples = 35\nvalue = [2, 33]"] ;
313 -> 314 ;
315 [label="X[2] <= 0.5\ngini = 0.057\nsamples = 34\nvalue = [1, 33]"] ;
314 -> 315 ;
316 [label="gini = 0.0\nsamples = 1\nvalue = [1, 0]"] ;
315 -> 316 ;
317 [label="gini = 0.0\nsamples = 33\nvalue = [0, 33]"] ;
315 -> 317 ;
318 [label="gini = 0.0\nsamples = 1\nvalue = [1, 0]"] ;
314 -> 318 ;
319 [label="gini = 0.0\nsamples = 5\nvalue = [5, 0]"] ;
313 -> 319 ;
320 [label="X[967] <= 0.5\ngini = 0.43\nsamples = 217\nvalue = [68, 149]"] ;
248 -> 320 ;
321 [label="X[150] <= 0.5\ngini = 0.375\nsamples = 160\nvalue = [40, 120]"] ;
320 -> 321 ;
322 [label="X[2] <= 0.5\ngini = 0.353\nsamples = 153\nvalue = [35, 118]"] ;
321 -> 322 ;
323 [label="gini = 0.0\nsamples = 21\nvalue = [0, 21]"] ;
322 -> 323 ;
324 [label="X[181] <= 0.5\ngini = 0.39\nsamples = 132\nvalue = [35, 97]"] ;
322 -> 324 ;
325 [label="X[496] <= 0.5\ngini = 0.419\nsamples = 117\nvalue = [35, 82]"] ;
324 -> 325 ;
326 [label="X[716] <= 0.5\ngini = 0.4\nsamples = 112\nvalue = [31, 81]"] ;
325 -> 326 ;
327 [label="X[241] <= 0.5\ngini = 0.455\nsamples = 83\nvalue = [29, 54]"] ;
326 -> 327 ;
328 [label="X[939] <= 0.5\ngini = 0.425\nsamples = 75\nvalue = [23, 52]"] ;
327 -> 328 ;
329 [label="gini = 0.493\nsamples = 41\nvalue = [18, 23]"] ;
328 -> 329 ;
330 [label="gini = 0.251\nsamples = 34\nvalue = [5, 29]"] ;
328 -> 330 ;
331 [label="X[575] <= 0.5\ngini = 0.375\nsamples = 8\nvalue = [6, 2]"] ;
327 -> 331 ;
332 [label="gini = 0.0\nsamples = 6\nvalue = [6, 0]"] ;
331 -> 332 ;
333 [label="gini = 0.0\nsamples = 2\nvalue = [0, 2]"] ;
331 -> 333 ;
334 [label="X[755] <= 0.5\ngini = 0.128\nsamples = 29\nvalue = [2, 27]"] ;
326 -> 334 ;
335 [label="X[471] <= 0.5\ngini = 0.069\nsamples = 28\nvalue = [1, 27]"] ;
334 -> 335 ;
336 [label="gini = 0.0\nsamples = 27\nvalue = [0, 27]"] ;
335 -> 336 ;
337 [label="gini = 0.0\nsamples = 1\nvalue = [1, 0]"] ;
335 -> 337 ;
338 [label="gini = 0.0\nsamples = 1\nvalue = [1, 0]"] ;
334 -> 338 ;
339 [label="X[342] <= 0.5\ngini = 0.32\nsamples = 5\nvalue = [4, 1]"] ;
325 -> 339 ;
340 [label="gini = 0.0\nsamples = 4\nvalue = [4, 0]"] ;
339 -> 340 ;
341 [label="gini = 0.0\nsamples = 1\nvalue = [0, 1]"] ;
339 -> 341 ;
342 [label="gini = 0.0\nsamples = 15\nvalue = [0, 15]"] ;
324 -> 342 ;
343 [label="X[999] <= 0.5\ngini = 0.408\nsamples = 7\nvalue = [5, 2]"] ;
321 -> 343 ;
344 [label="gini = 0.0\nsamples = 5\nvalue = [5, 0]"] ;
343 -> 344 ;
345 [label="gini = 0.0\nsamples = 2\nvalue = [0, 2]"] ;
343 -> 345 ;
346 [label="X[457] <= 0.5\ngini = 0.5\nsamples = 57\nvalue = [28, 29]"] ;
320 -> 346 ;
347 [label="X[1022] <= 0.5\ngini = 0.458\nsamples = 45\nvalue = [16, 29]"] ;
346 -> 347 ;
348 [label="X[918] <= 0.5\ngini = 0.35\nsamples = 31\nvalue = [7, 24]"] ;
347 -> 348 ;
349 [label="X[315] <= 0.5\ngini = 0.285\nsamples = 29\nvalue = [5, 24]"] ;
348 -> 349 ;
350 [label="X[549] <= 0.5\ngini = 0.147\nsamples = 25\nvalue = [2, 23]"] ;
349 -> 350 ;
351 [label="gini = 0.0\nsamples = 23\nvalue = [0, 23]"] ;
350 -> 351 ;
352 [label="gini = 0.0\nsamples = 2\nvalue = [2, 0]"] ;
350 -> 352 ;
353 [label="X[145] <= 0.5\ngini = 0.375\nsamples = 4\nvalue = [3, 1]"] ;
349 -> 353 ;
354 [label="gini = 0.0\nsamples = 3\nvalue = [3, 0]"] ;
353 -> 354 ;
355 [label="gini = 0.0\nsamples = 1\nvalue = [0, 1]"] ;
353 -> 355 ;
356 [label="gini = 0.0\nsamples = 2\nvalue = [2, 0]"] ;
348 -> 356 ;
357 [label="X[958] <= 0.5\ngini = 0.459\nsamples = 14\nvalue = [9, 5]"] ;
347 -> 357 ;
358 [label="X[754] <= 0.5\ngini = 0.18\nsamples = 10\nvalue = [9, 1]"] ;
357 -> 358 ;
359 [label="gini = 0.0\nsamples = 9\nvalue = [9, 0]"] ;
358 -> 359 ;
360 [label="gini = 0.0\nsamples = 1\nvalue = [0, 1]"] ;
358 -> 360 ;
361 [label="gini = 0.0\nsamples = 4\nvalue = [0, 4]"] ;
357 -> 361 ;
362 [label="gini = 0.0\nsamples = 12\nvalue = [12, 0]"] ;
346 -> 362 ;
363 [label="X[1234] <= 0.5\ngini = 0.23\nsamples = 98\nvalue = [13, 85]"] ;
3 -> 363 ;
364 [label="X[269] <= 0.5\ngini = 0.177\nsamples = 92\nvalue = [9, 83]"] ;
363 -> 364 ;
365 [label="X[737] <= 0.5\ngini = 0.143\nsamples = 90\nvalue = [7, 83]"] ;
364 -> 365 ;
366 [label="X[1201] <= 0.5\ngini = 0.108\nsamples = 87\nvalue = [5, 82]"] ;
365 -> 366 ;
367 [label="X[707] <= 0.5\ngini = 0.069\nsamples = 84\nvalue = [3, 81]"] ;
366 -> 367 ;
368 [label="X[0] <= 2.5\ngini = 0.047\nsamples = 83\nvalue = [2, 81]"] ;
367 -> 368 ;
369 [label="gini = 0.0\nsamples = 1\nvalue = [1, 0]"] ;
368 -> 369 ;
370 [label="X[206] <= 0.5\ngini = 0.024\nsamples = 82\nvalue = [1, 81]"] ;
368 -> 370 ;
371 [label="gini = 0.0\nsamples = 79\nvalue = [0, 79]"] ;
370 -> 371 ;
372 [label="X[905] <= 0.5\ngini = 0.444\nsamples = 3\nvalue = [1, 2]"] ;
370 -> 372 ;
373 [label="gini = 0.0\nsamples = 2\nvalue = [0, 2]"] ;
372 -> 373 ;
374 [label="gini = 0.0\nsamples = 1\nvalue = [1, 0]"] ;
372 -> 374 ;
375 [label="gini = 0.0\nsamples = 1\nvalue = [1, 0]"] ;
367 -> 375 ;
376 [label="X[1059] <= 0.5\ngini = 0.444\nsamples = 3\nvalue = [2, 1]"] ;
366 -> 376 ;
377 [label="gini = 0.0\nsamples = 2\nvalue = [2, 0]"] ;
376 -> 377 ;
378 [label="gini = 0.0\nsamples = 1\nvalue = [0, 1]"] ;
376 -> 378 ;
379 [label="X[663] <= 0.5\ngini = 0.444\nsamples = 3\nvalue = [2, 1]"] ;
365 -> 379 ;
380 [label="gini = 0.0\nsamples = 2\nvalue = [2, 0]"] ;
379 -> 380 ;
381 [label="gini = 0.0\nsamples = 1\nvalue = [0, 1]"] ;
379 -> 381 ;
382 [label="gini = 0.0\nsamples = 2\nvalue = [2, 0]"] ;
364 -> 382 ;
383 [label="X[1017] <= 0.5\ngini = 0.444\nsamples = 6\nvalue = [4, 2]"] ;
363 -> 383 ;
384 [label="gini = 0.0\nsamples = 4\nvalue = [4, 0]"] ;
383 -> 384 ;
385 [label="gini = 0.0\nsamples = 2\nvalue = [0, 2]"] ;
383 -> 385 ;
386 [label="X[903] <= 0.5\ngini = 0.02\nsamples = 677\nvalue = [670, 7]"] ;
2 -> 386 ;
387 [label="X[218] <= 0.5\ngini = 0.018\nsamples = 676\nvalue = [670, 6]"] ;
386 -> 387 ;
388 [label="X[1048] <= 0.5\ngini = 0.015\nsamples = 674\nvalue = [669, 5]"] ;
387 -> 388 ;
389 [label="X[741] <= 0.5\ngini = 0.009\nsamples = 666\nvalue = [663, 3]"] ;
388 -> 389 ;
390 [label="X[911] <= 0.5\ngini = 0.006\nsamples = 663\nvalue = [661, 2]"] ;
389 -> 390 ;
391 [label="X[517] <= 0.5\ngini = 0.003\nsamples = 659\nvalue = [658, 1]"] ;
390 -> 391 ;
392 [label="gini = 0.0\nsamples = 639\nvalue = [639, 0]"] ;
391 -> 392 ;
393 [label="X[0] <= 3.5\ngini = 0.095\nsamples = 20\nvalue = [19, 1]"] ;
391 -> 393 ;
394 [label="gini = 0.0\nsamples = 1\nvalue = [0, 1]"] ;
393 -> 394 ;
395 [label="gini = 0.0\nsamples = 19\nvalue = [19, 0]"] ;
393 -> 395 ;
396 [label="X[1202] <= 0.5\ngini = 0.375\nsamples = 4\nvalue = [3, 1]"] ;
390 -> 396 ;
397 [label="gini = 0.0\nsamples = 3\nvalue = [3, 0]"] ;
396 -> 397 ;
398 [label="gini = 0.0\nsamples = 1\nvalue = [0, 1]"] ;
396 -> 398 ;
399 [label="X[505] <= 0.5\ngini = 0.444\nsamples = 3\nvalue = [2, 1]"] ;
389 -> 399 ;
400 [label="gini = 0.0\nsamples = 2\nvalue = [2, 0]"] ;
399 -> 400 ;
401 [label="gini = 0.0\nsamples = 1\nvalue = [0, 1]"] ;
399 -> 401 ;
402 [label="X[494] <= 0.5\ngini = 0.375\nsamples = 8\nvalue = [6, 2]"] ;
388 -> 402 ;
403 [label="gini = 0.0\nsamples = 2\nvalue = [0, 2]"] ;
402 -> 403 ;
404 [label="gini = 0.0\nsamples = 6\nvalue = [6, 0]"] ;
402 -> 404 ;
405 [label="X[518] <= 0.5\ngini = 0.5\nsamples = 2\nvalue = [1, 1]"] ;
387 -> 405 ;
406 [label="gini = 0.0\nsamples = 1\nvalue = [0, 1]"] ;
405 -> 406 ;
407 [label="gini = 0.0\nsamples = 1\nvalue = [1, 0]"] ;
405 -> 407 ;
408 [label="gini = 0.0\nsamples = 1\nvalue = [0, 1]"] ;
386 -> 408 ;
409 [label="X[1211] <= 0.5\ngini = 0.443\nsamples = 1225\nvalue = [406, 819]"] ;
1 -> 409 ;
410 [label="X[110] <= 0.5\ngini = 0.431\nsamples = 1179\nvalue = [370, 809]"] ;
409 -> 410 ;
411 [label="X[637] <= 0.5\ngini = 0.421\nsamples = 1154\nvalue = [347, 807]"] ;
410 -> 411 ;
412 [label="X[65] <= 0.5\ngini = 0.397\nsamples = 1050\nvalue = [287, 763]"] ;
411 -> 412 ;
413 [label="X[56] <= 0.5\ngini = 0.386\nsamples = 1024\nvalue = [267, 757]"] ;
412 -> 413 ;
414 [label="X[119] <= 0.5\ngini = 0.378\nsamples = 1013\nvalue = [256, 757]"] ;
413 -> 414 ;
415 [label="X[26] <= 0.5\ngini = 0.365\nsamples = 986\nvalue = [237, 749]"] ;
414 -> 415 ;
416 [label="X[133] <= 0.5\ngini = 0.356\nsamples = 972\nvalue = [225, 747]"] ;
415 -> 416 ;
417 [label="X[745] <= 0.5\ngini = 0.348\nsamples = 963\nvalue = [216, 747]"] ;
416 -> 417 ;
418 [label="X[116] <= 0.5\ngini = 0.307\nsamples = 792\nvalue = [150, 642]"] ;
417 -> 418 ;
419 [label="X[245] <= 0.5\ngini = 0.298\nsamples = 785\nvalue = [143, 642]"] ;
418 -> 419 ;
420 [label="X[629] <= 0.5\ngini = 0.281\nsamples = 762\nvalue = [129, 633]"] ;
419 -> 420 ;
421 [label="gini = 0.27\nsamples = 751\nvalue = [121, 630]"] ;
420 -> 421 ;
422 [label="gini = 0.397\nsamples = 11\nvalue = [8, 3]"] ;
420 -> 422 ;
423 [label="X[751] <= 0.5\ngini = 0.476\nsamples = 23\nvalue = [14, 9]"] ;
419 -> 423 ;
424 [label="gini = 0.473\nsamples = 13\nvalue = [5, 8]"] ;
423 -> 424 ;
425 [label="gini = 0.18\nsamples = 10\nvalue = [9, 1]"] ;
423 -> 425 ;
426 [label="gini = 0.0\nsamples = 7\nvalue = [7, 0]"] ;
418 -> 426 ;
427 [label="X[168] <= 0.5\ngini = 0.474\nsamples = 171\nvalue = [66, 105]"] ;
417 -> 427 ;
428 [label="X[1035] <= 0.5\ngini = 0.498\nsamples = 90\nvalue = [48, 42]"] ;
427 -> 428 ;
429 [label="X[822] <= 0.5\ngini = 0.481\nsamples = 77\nvalue = [46, 31]"] ;
428 -> 429 ;
430 [label="gini = 0.411\nsamples = 52\nvalue = [37, 15]"] ;
429 -> 430 ;
431 [label="gini = 0.461\nsamples = 25\nvalue = [9, 16]"] ;
429 -> 431 ;
432 [label="X[1165] <= 0.5\ngini = 0.26\nsamples = 13\nvalue = [2, 11]"] ;
428 -> 432 ;
433 [label="gini = 0.0\nsamples = 10\nvalue = [0, 10]"] ;
432 -> 433 ;
434 [label="gini = 0.444\nsamples = 3\nvalue = [2, 1]"] ;
432 -> 434 ;
435 [label="X[754] <= 0.5\ngini = 0.346\nsamples = 81\nvalue = [18, 63]"] ;
427 -> 435 ;
436 [label="X[184] <= 0.5\ngini = 0.311\nsamples = 78\nvalue = [15, 63]"] ;
435 -> 436 ;
437 [label="gini = 0.163\nsamples = 56\nvalue = [5, 51]"] ;
436 -> 437 ;
438 [label="gini = 0.496\nsamples = 22\nvalue = [10, 12]"] ;
436 -> 438 ;
439 [label="gini = 0.0\nsamples = 3\nvalue = [3, 0]"] ;
435 -> 439 ;
440 [label="gini = 0.0\nsamples = 9\nvalue = [9, 0]"] ;
416 -> 440 ;
441 [label="X[460] <= 0.5\ngini = 0.245\nsamples = 14\nvalue = [12, 2]"] ;
415 -> 441 ;
442 [label="gini = 0.0\nsamples = 12\nvalue = [12, 0]"] ;
441 -> 442 ;
443 [label="gini = 0.0\nsamples = 2\nvalue = [0, 2]"] ;
441 -> 443 ;
444 [label="X[333] <= 0.5\ngini = 0.417\nsamples = 27\nvalue = [19, 8]"] ;
414 -> 444 ;
445 [label="X[763] <= 0.5\ngini = 0.245\nsamples = 21\nvalue = [18, 3]"] ;
444 -> 445 ;
446 [label="X[408] <= 0.5\ngini = 0.1\nsamples = 19\nvalue = [18, 1]"] ;
445 -> 446 ;
447 [label="gini = 0.0\nsamples = 18\nvalue = [18, 0]"] ;
446 -> 447 ;
448 [label="gini = 0.0\nsamples = 1\nvalue = [0, 1]"] ;
446 -> 448 ;
449 [label="gini = 0.0\nsamples = 2\nvalue = [0, 2]"] ;
445 -> 449 ;
450 [label="X[350] <= 0.5\ngini = 0.278\nsamples = 6\nvalue = [1, 5]"] ;
444 -> 450 ;
451 [label="gini = 0.0\nsamples = 5\nvalue = [0, 5]"] ;
450 -> 451 ;
452 [label="gini = 0.0\nsamples = 1\nvalue = [1, 0]"] ;
450 -> 452 ;
453 [label="gini = 0.0\nsamples = 11\nvalue = [11, 0]"] ;
413 -> 453 ;
454 [label="X[833] <= 0.5\ngini = 0.355\nsamples = 26\nvalue = [20, 6]"] ;
412 -> 454 ;
455 [label="X[1171] <= 0.5\ngini = 0.165\nsamples = 22\nvalue = [20, 2]"] ;
454 -> 455 ;
456 [label="gini = 0.0\nsamples = 20\nvalue = [20, 0]"] ;
455 -> 456 ;
457 [label="gini = 0.0\nsamples = 2\nvalue = [0, 2]"] ;
455 -> 457 ;
458 [label="gini = 0.0\nsamples = 4\nvalue = [0, 4]"] ;
454 -> 458 ;
459 [label="X[29] <= 0.5\ngini = 0.488\nsamples = 104\nvalue = [60, 44]"] ;
411 -> 459 ;
460 [label="X[14] <= 0.5\ngini = 0.456\nsamples = 91\nvalue = [59, 32]"] ;
459 -> 460 ;
461 [label="X[471] <= 0.5\ngini = 0.418\nsamples = 84\nvalue = [59, 25]"] ;
460 -> 461 ;
462 [label="X[1172] <= 0.5\ngini = 0.361\nsamples = 76\nvalue = [58, 18]"] ;
461 -> 462 ;
463 [label="X[902] <= 0.5\ngini = 0.444\nsamples = 51\nvalue = [34, 17]"] ;
462 -> 463 ;
464 [label="X[1000] <= 0.5\ngini = 0.293\nsamples = 28\nvalue = [23, 5]"] ;
463 -> 464 ;
465 [label="X[1155] <= 0.5\ngini = 0.204\nsamples = 26\nvalue = [23, 3]"] ;
464 -> 465 ;
466 [label="gini = 0.0\nsamples = 19\nvalue = [19, 0]"] ;
465 -> 466 ;
467 [label="X[905] <= 0.5\ngini = 0.49\nsamples = 7\nvalue = [4, 3]"] ;
465 -> 467 ;
468 [label="gini = 0.0\nsamples = 3\nvalue = [0, 3]"] ;
467 -> 468 ;
469 [label="gini = 0.0\nsamples = 4\nvalue = [4, 0]"] ;
467 -> 469 ;
470 [label="gini = 0.0\nsamples = 2\nvalue = [0, 2]"] ;
464 -> 470 ;
471 [label="X[1056] <= 0.5\ngini = 0.499\nsamples = 23\nvalue = [11, 12]"] ;
463 -> 471 ;
472 [label="X[480] <= 0.5\ngini = 0.415\nsamples = 17\nvalue = [5, 12]"] ;
471 -> 472 ;
473 [label="X[328] <= 0.5\ngini = 0.165\nsamples = 11\nvalue = [1, 10]"] ;
472 -> 473 ;
474 [label="gini = 0.0\nsamples = 10\nvalue = [0, 10]"] ;
473 -> 474 ;
475 [label="gini = 0.0\nsamples = 1\nvalue = [1, 0]"] ;
473 -> 475 ;
476 [label="X[822] <= 0.5\ngini = 0.444\nsamples = 6\nvalue = [4, 2]"] ;
472 -> 476 ;
477 [label="gini = 0.0\nsamples = 4\nvalue = [4, 0]"] ;
476 -> 477 ;
478 [label="gini = 0.0\nsamples = 2\nvalue = [0, 2]"] ;
476 -> 478 ;
479 [label="gini = 0.0\nsamples = 6\nvalue = [6, 0]"] ;
471 -> 479 ;
480 [label="X[122] <= 0.5\ngini = 0.077\nsamples = 25\nvalue = [24, 1]"] ;
462 -> 480 ;
481 [label="gini = 0.0\nsamples = 24\nvalue = [24, 0]"] ;
480 -> 481 ;
482 [label="gini = 0.0\nsamples = 1\nvalue = [0, 1]"] ;
480 -> 482 ;
483 [label="X[613] <= 0.5\ngini = 0.219\nsamples = 8\nvalue = [1, 7]"] ;
461 -> 483 ;
484 [label="gini = 0.0\nsamples = 7\nvalue = [0, 7]"] ;
483 -> 484 ;
485 [label="gini = 0.0\nsamples = 1\nvalue = [1, 0]"] ;
483 -> 485 ;
486 [label="gini = 0.0\nsamples = 7\nvalue = [0, 7]"] ;
460 -> 486 ;
487 [label="X[180] <= 0.5\ngini = 0.142\nsamples = 13\nvalue = [1, 12]"] ;
459 -> 487 ;
488 [label="gini = 0.0\nsamples = 12\nvalue = [0, 12]"] ;
487 -> 488 ;
489 [label="gini = 0.0\nsamples = 1\nvalue = [1, 0]"] ;
487 -> 489 ;
490 [label="X[397] <= 0.5\ngini = 0.147\nsamples = 25\nvalue = [23, 2]"] ;
410 -> 490 ;
491 [label="X[158] <= 0.5\ngini = 0.08\nsamples = 24\nvalue = [23, 1]"] ;
490 -> 491 ;
492 [label="gini = 0.0\nsamples = 23\nvalue = [23, 0]"] ;
491 -> 492 ;
493 [label="gini = 0.0\nsamples = 1\nvalue = [0, 1]"] ;
491 -> 493 ;
494 [label="gini = 0.0\nsamples = 1\nvalue = [0, 1]"] ;
490 -> 494 ;
495 [label="X[1167] <= 0.5\ngini = 0.34\nsamples = 46\nvalue = [36, 10]"] ;
409 -> 495 ;
496 [label="X[1095] <= 0.5\ngini = 0.273\nsamples = 43\nvalue = [36, 7]"] ;
495 -> 496 ;
497 [label="X[1045] <= 0.5\ngini = 0.145\nsamples = 38\nvalue = [35, 3]"] ;
496 -> 497 ;
498 [label="X[1024] <= 0.5\ngini = 0.056\nsamples = 35\nvalue = [34, 1]"] ;
497 -> 498 ;
499 [label="gini = 0.0\nsamples = 34\nvalue = [34, 0]"] ;
498 -> 499 ;
500 [label="gini = 0.0\nsamples = 1\nvalue = [0, 1]"] ;
498 -> 500 ;
501 [label="X[945] <= 0.5\ngini = 0.444\nsamples = 3\nvalue = [1, 2]"] ;
497 -> 501 ;
502 [label="gini = 0.0\nsamples = 2\nvalue = [0, 2]"] ;
501 -> 502 ;
503 [label="gini = 0.0\nsamples = 1\nvalue = [1, 0]"] ;
501 -> 503 ;
504 [label="X[974] <= 0.5\ngini = 0.32\nsamples = 5\nvalue = [1, 4]"] ;
496 -> 504 ;
505 [label="gini = 0.0\nsamples = 4\nvalue = [0, 4]"] ;
504 -> 505 ;
506 [label="gini = 0.0\nsamples = 1\nvalue = [1, 0]"] ;
504 -> 506 ;
507 [label="gini = 0.0\nsamples = 3\nvalue = [0, 3]"] ;
495 -> 507 ;
508 [label="X[149] <= 0.5\ngini = 0.127\nsamples = 3020\nvalue = [205, 2815]"] ;
0 -> 508 [labeldistance=2.5, labelangle=-45, headlabel="False"] ;
509 [label="X[1184] <= 0.5\ngini = 0.444\nsamples = 51\nvalue = [34, 17]"] ;
508 -> 509 ;
510 [label="X[637] <= 0.5\ngini = 0.496\nsamples = 35\nvalue = [19, 16]"] ;
509 -> 510 ;
511 [label="X[853] <= 0.5\ngini = 0.469\nsamples = 24\nvalue = [9, 15]"] ;
510 -> 511 ;
512 [label="X[540] <= 0.5\ngini = 0.408\nsamples = 21\nvalue = [6, 15]"] ;
511 -> 512 ;
513 [label="X[555] <= 0.5\ngini = 0.278\nsamples = 18\nvalue = [3, 15]"] ;
512 -> 513 ;
514 [label="X[576] <= 0.5\ngini = 0.117\nsamples = 16\nvalue = [1, 15]"] ;
513 -> 514 ;
515 [label="gini = 0.0\nsamples = 15\nvalue = [0, 15]"] ;
514 -> 515 ;
516 [label="gini = 0.0\nsamples = 1\nvalue = [1, 0]"] ;
514 -> 516 ;
517 [label="gini = 0.0\nsamples = 2\nvalue = [2, 0]"] ;
513 -> 517 ;
518 [label="gini = 0.0\nsamples = 3\nvalue = [3, 0]"] ;
512 -> 518 ;
519 [label="gini = 0.0\nsamples = 3\nvalue = [3, 0]"] ;
511 -> 519 ;
520 [label="X[787] <= 0.5\ngini = 0.165\nsamples = 11\nvalue = [10, 1]"] ;
510 -> 520 ;
521 [label="gini = 0.0\nsamples = 10\nvalue = [10, 0]"] ;
520 -> 521 ;
522 [label="gini = 0.0\nsamples = 1\nvalue = [0, 1]"] ;
520 -> 522 ;
523 [label="X[991] <= 0.5\ngini = 0.117\nsamples = 16\nvalue = [15, 1]"] ;
509 -> 523 ;
524 [label="gini = 0.0\nsamples = 15\nvalue = [15, 0]"] ;
523 -> 524 ;
525 [label="gini = 0.0\nsamples = 1\nvalue = [0, 1]"] ;
523 -> 525 ;
526 [label="X[637] <= 0.5\ngini = 0.109\nsamples = 2969\nvalue = [171, 2798]"] ;
508 -> 526 ;
527 [label="X[146] <= 0.5\ngini = 0.076\nsamples = 2671\nvalue = [105, 2566]"] ;
526 -> 527 ;
528 [label="X[208] <= 0.5\ngini = 0.272\nsamples = 166\nvalue = [27, 139]"] ;
527 -> 528 ;
529 [label="X[230] <= 0.5\ngini = 0.244\nsamples = 162\nvalue = [23, 139]"] ;
528 -> 529 ;
530 [label="X[1186] <= 0.5\ngini = 0.179\nsamples = 141\nvalue = [14, 127]"] ;
529 -> 530 ;
531 [label="X[732] <= 0.5\ngini = 0.149\nsamples = 136\nvalue = [11, 125]"] ;
530 -> 531 ;
532 [label="X[932] <= 0.5\ngini = 0.137\nsamples = 135\nvalue = [10, 125]"] ;
531 -> 532 ;
533 [label="X[474] <= 0.5\ngini = 0.069\nsamples = 111\nvalue = [4, 107]"] ;
532 -> 533 ;
534 [label="X[1201] <= 0.5\ngini = 0.053\nsamples = 110\nvalue = [3, 107]"] ;
533 -> 534 ;
535 [label="X[221] <= 0.5\ngini = 0.036\nsamples = 109\nvalue = [2, 107]"] ;
534 -> 535 ;
536 [label="gini = 0.0\nsamples = 102\nvalue = [0, 102]"] ;
535 -> 536 ;
537 [label="X[687] <= 0.5\ngini = 0.408\nsamples = 7\nvalue = [2, 5]"] ;
535 -> 537 ;
538 [label="gini = 0.0\nsamples = 5\nvalue = [0, 5]"] ;
537 -> 538 ;
539 [label="gini = 0.0\nsamples = 2\nvalue = [2, 0]"] ;
537 -> 539 ;
540 [label="gini = 0.0\nsamples = 1\nvalue = [1, 0]"] ;
534 -> 540 ;
541 [label="gini = 0.0\nsamples = 1\nvalue = [1, 0]"] ;
533 -> 541 ;
542 [label="X[960] <= 0.5\ngini = 0.375\nsamples = 24\nvalue = [6, 18]"] ;
532 -> 542 ;
543 [label="X[866] <= 0.5\ngini = 0.245\nsamples = 21\nvalue = [3, 18]"] ;
542 -> 543 ;
544 [label="X[232] <= 0.5\ngini = 0.1\nsamples = 19\nvalue = [1, 18]"] ;
543 -> 544 ;
545 [label="gini = 0.0\nsamples = 18\nvalue = [0, 18]"] ;
544 -> 545 ;
546 [label="gini = 0.0\nsamples = 1\nvalue = [1, 0]"] ;
544 -> 546 ;
547 [label="gini = 0.0\nsamples = 2\nvalue = [2, 0]"] ;
543 -> 547 ;
548 [label="gini = 0.0\nsamples = 3\nvalue = [3, 0]"] ;
542 -> 548 ;
549 [label="gini = 0.0\nsamples = 1\nvalue = [1, 0]"] ;
531 -> 549 ;
550 [label="X[1237] <= 0.5\ngini = 0.48\nsamples = 5\nvalue = [3, 2]"] ;
530 -> 550 ;
551 [label="gini = 0.0\nsamples = 2\nvalue = [0, 2]"] ;
550 -> 551 ;
552 [label="gini = 0.0\nsamples = 3\nvalue = [3, 0]"] ;
550 -> 552 ;
553 [label="X[449] <= 0.5\ngini = 0.49\nsamples = 21\nvalue = [9, 12]"] ;
529 -> 553 ;
554 [label="X[986] <= 0.5\ngini = 0.415\nsamples = 17\nvalue = [5, 12]"] ;
553 -> 554 ;
555 [label="X[585] <= 0.5\ngini = 0.165\nsamples = 11\nvalue = [1, 10]"] ;
554 -> 555 ;
556 [label="gini = 0.0\nsamples = 10\nvalue = [0, 10]"] ;
555 -> 556 ;
557 [label="gini = 0.0\nsamples = 1\nvalue = [1, 0]"] ;
555 -> 557 ;
558 [label="X[592] <= 0.5\ngini = 0.444\nsamples = 6\nvalue = [4, 2]"] ;
554 -> 558 ;
559 [label="gini = 0.0\nsamples = 4\nvalue = [4, 0]"] ;
558 -> 559 ;
560 [label="gini = 0.0\nsamples = 2\nvalue = [0, 2]"] ;
558 -> 560 ;
561 [label="gini = 0.0\nsamples = 4\nvalue = [4, 0]"] ;
553 -> 561 ;
562 [label="gini = 0.0\nsamples = 4\nvalue = [4, 0]"] ;
528 -> 562 ;
563 [label="X[219] <= 0.5\ngini = 0.06\nsamples = 2505\nvalue = [78, 2427]"] ;
527 -> 563 ;
564 [label="X[971] <= 0.5\ngini = 0.053\nsamples = 2442\nvalue = [66, 2376]"] ;
563 -> 564 ;
565 [label="X[635] <= 0.5\ngini = 0.044\nsamples = 2330\nvalue = [52, 2278]"] ;
564 -> 565 ;
566 [label="gini = 0.0\nsamples = 1\nvalue = [1, 0]"] ;
565 -> 566 ;
567 [label="X[192] <= 0.5\ngini = 0.043\nsamples = 2329\nvalue = [51, 2278]"] ;
565 -> 567 ;
568 [label="X[186] <= 0.5\ngini = 0.035\nsamples = 2226\nvalue = [40, 2186]"] ;
567 -> 568 ;
569 [label="X[1242] <= 0.5\ngini = 0.027\nsamples = 2065\nvalue = [28, 2037]"] ;
568 -> 569 ;
570 [label="X[674] <= 0.5\ngini = 0.025\nsamples = 2055\nvalue = [26, 2029]"] ;
569 -> 570 ;
571 [label="X[2] <= 30.0\ngini = 0.024\nsamples = 2051\nvalue = [25, 2026]"] ;
570 -> 571 ;
572 [label="X[587] <= 0.5\ngini = 0.023\nsamples = 2047\nvalue = [24, 2023]"] ;
571 -> 572 ;
573 [label="X[909] <= 0.5\ngini = 0.021\nsamples = 2013\nvalue = [21, 1992]"] ;
572 -> 573 ;
574 [label="gini = 0.02\nsamples = 2009\nvalue = [20, 1989]"] ;
573 -> 574 ;
575 [label="gini = 0.375\nsamples = 4\nvalue = [1, 3]"] ;
573 -> 575 ;
576 [label="X[250] <= 0.5\ngini = 0.161\nsamples = 34\nvalue = [3, 31]"] ;
572 -> 576 ;
577 [label="gini = 0.0\nsamples = 29\nvalue = [0, 29]"] ;
576 -> 577 ;
578 [label="gini = 0.48\nsamples = 5\nvalue = [3, 2]"] ;
576 -> 578 ;
579 [label="X[604] <= 0.5\ngini = 0.375\nsamples = 4\nvalue = [1, 3]"] ;
571 -> 579 ;
580 [label="gini = 0.0\nsamples = 3\nvalue = [0, 3]"] ;
579 -> 580 ;
581 [label="gini = 0.0\nsamples = 1\nvalue = [1, 0]"] ;
579 -> 581 ;
582 [label="X[351] <= 0.5\ngini = 0.375\nsamples = 4\nvalue = [1, 3]"] ;
570 -> 582 ;
583 [label="gini = 0.0\nsamples = 3\nvalue = [0, 3]"] ;
582 -> 583 ;
584 [label="gini = 0.0\nsamples = 1\nvalue = [1, 0]"] ;
582 -> 584 ;
585 [label="X[1131] <= 0.5\ngini = 0.32\nsamples = 10\nvalue = [2, 8]"] ;
569 -> 585 ;
586 [label="gini = 0.0\nsamples = 8\nvalue = [0, 8]"] ;
585 -> 586 ;
587 [label="gini = 0.0\nsamples = 2\nvalue = [2, 0]"] ;
585 -> 587 ;
588 [label="X[497] <= 0.5\ngini = 0.138\nsamples = 161\nvalue = [12, 149]"] ;
568 -> 588 ;
589 [label="X[294] <= 0.5\ngini = 0.081\nsamples = 141\nvalue = [6, 135]"] ;
588 -> 589 ;
590 [label="X[0] <= 2.5\ngini = 0.069\nsamples = 140\nvalue = [5, 135]"] ;
589 -> 590 ;
591 [label="gini = 0.0\nsamples = 1\nvalue = [1, 0]"] ;
590 -> 591 ;
592 [label="X[174] <= 0.5\ngini = 0.056\nsamples = 139\nvalue = [4, 135]"] ;
590 -> 592 ;
593 [label="X[1149] <= 0.5\ngini = 0.043\nsamples = 137\nvalue = [3, 134]"] ;
592 -> 593 ;
594 [label="gini = 0.016\nsamples = 127\nvalue = [1, 126]"] ;
593 -> 594 ;
595 [label="gini = 0.32\nsamples = 10\nvalue = [2, 8]"] ;
593 -> 595 ;
596 [label="X[1074] <= 0.5\ngini = 0.5\nsamples = 2\nvalue = [1, 1]"] ;
592 -> 596 ;
597 [label="gini = 0.0\nsamples = 1\nvalue = [0, 1]"] ;
596 -> 597 ;
598 [label="gini = 0.0\nsamples = 1\nvalue = [1, 0]"] ;
596 -> 598 ;
599 [label="gini = 0.0\nsamples = 1\nvalue = [1, 0]"] ;
589 -> 599 ;
600 [label="X[469] <= 0.5\ngini = 0.42\nsamples = 20\nvalue = [6, 14]"] ;
588 -> 600 ;
601 [label="X[551] <= 0.5\ngini = 0.231\nsamples = 15\nvalue = [2, 13]"] ;
600 -> 601 ;
602 [label="gini = 0.0\nsamples = 13\nvalue = [0, 13]"] ;
601 -> 602 ;
603 [label="gini = 0.0\nsamples = 2\nvalue = [2, 0]"] ;
601 -> 603 ;
604 [label="X[1159] <= 0.5\ngini = 0.32\nsamples = 5\nvalue = [4, 1]"] ;
600 -> 604 ;
605 [label="gini = 0.0\nsamples = 4\nvalue = [4, 0]"] ;
604 -> 605 ;
606 [label="gini = 0.0\nsamples = 1\nvalue = [0, 1]"] ;
604 -> 606 ;
607 [label="X[599] <= 0.5\ngini = 0.191\nsamples = 103\nvalue = [11, 92]"] ;
567 -> 607 ;
608 [label="X[1038] <= 0.5\ngini = 0.162\nsamples = 101\nvalue = [9, 92]"] ;
607 -> 608 ;
609 [label="X[544] <= 0.5\ngini = 0.117\nsamples = 96\nvalue = [6, 90]"] ;
608 -> 609 ;
610 [label="X[1044] <= 0.5\ngini = 0.1\nsamples = 95\nvalue = [5, 90]"] ;
609 -> 610 ;
611 [label="X[336] <= 0.5\ngini = 0.081\nsamples = 94\nvalue = [4, 90]"] ;
610 -> 611 ;
612 [label="X[682] <= 0.5\ngini = 0.044\nsamples = 89\nvalue = [2, 87]"] ;
611 -> 612 ;
613 [label="gini = 0.023\nsamples = 87\nvalue = [1, 86]"] ;
612 -> 613 ;
614 [label="gini = 0.5\nsamples = 2\nvalue = [1, 1]"] ;
612 -> 614 ;
615 [label="X[659] <= 0.5\ngini = 0.48\nsamples = 5\nvalue = [2, 3]"] ;
611 -> 615 ;
616 [label="gini = 0.0\nsamples = 2\nvalue = [2, 0]"] ;
615 -> 616 ;
617 [label="gini = 0.0\nsamples = 3\nvalue = [0, 3]"] ;
615 -> 617 ;
618 [label="gini = 0.0\nsamples = 1\nvalue = [1, 0]"] ;
610 -> 618 ;
619 [label="gini = 0.0\nsamples = 1\nvalue = [1, 0]"] ;
609 -> 619 ;
620 [label="X[992] <= 0.5\ngini = 0.48\nsamples = 5\nvalue = [3, 2]"] ;
608 -> 620 ;
621 [label="gini = 0.0\nsamples = 3\nvalue = [3, 0]"] ;
620 -> 621 ;
622 [label="gini = 0.0\nsamples = 2\nvalue = [0, 2]"] ;
620 -> 622 ;
623 [label="gini = 0.0\nsamples = 2\nvalue = [2, 0]"] ;
607 -> 623 ;
624 [label="X[424] <= 0.5\ngini = 0.219\nsamples = 112\nvalue = [14, 98]"] ;
564 -> 624 ;
625 [label="X[243] <= 0.5\ngini = 0.171\nsamples = 106\nvalue = [10, 96]"] ;
624 -> 625 ;
626 [label="X[517] <= 0.5\ngini = 0.116\nsamples = 97\nvalue = [6, 91]"] ;
625 -> 626 ;
627 [label="X[264] <= 0.5\ngini = 0.099\nsamples = 96\nvalue = [5, 91]"] ;
626 -> 627 ;
628 [label="X[602] <= 0.5\ngini = 0.063\nsamples = 92\nvalue = [3, 89]"] ;
627 -> 628 ;
629 [label="X[1133] <= 0.5\ngini = 0.023\nsamples = 87\nvalue = [1, 86]"] ;
628 -> 629 ;
630 [label="gini = 0.0\nsamples = 84\nvalue = [0, 84]"] ;
629 -> 630 ;
631 [label="X[932] <= 0.5\ngini = 0.444\nsamples = 3\nvalue = [1, 2]"] ;
629 -> 631 ;
632 [label="gini = 0.0\nsamples = 2\nvalue = [0, 2]"] ;
631 -> 632 ;
633 [label="gini = 0.0\nsamples = 1\nvalue = [1, 0]"] ;
631 -> 633 ;
634 [label="X[440] <= 0.5\ngini = 0.48\nsamples = 5\nvalue = [2, 3]"] ;
628 -> 634 ;
635 [label="gini = 0.0\nsamples = 2\nvalue = [2, 0]"] ;
634 -> 635 ;
636 [label="gini = 0.0\nsamples = 3\nvalue = [0, 3]"] ;
634 -> 636 ;
637 [label="X[845] <= 0.5\ngini = 0.5\nsamples = 4\nvalue = [2, 2]"] ;
627 -> 637 ;
638 [label="gini = 0.0\nsamples = 2\nvalue = [0, 2]"] ;
637 -> 638 ;
639 [label="gini = 0.0\nsamples = 2\nvalue = [2, 0]"] ;
637 -> 639 ;
640 [label="gini = 0.0\nsamples = 1\nvalue = [1, 0]"] ;
626 -> 640 ;
641 [label="X[812] <= 0.5\ngini = 0.494\nsamples = 9\nvalue = [4, 5]"] ;
625 -> 641 ;
642 [label="gini = 0.0\nsamples = 4\nvalue = [4, 0]"] ;
641 -> 642 ;
643 [label="gini = 0.0\nsamples = 5\nvalue = [0, 5]"] ;
641 -> 643 ;
644 [label="X[826] <= 0.5\ngini = 0.444\nsamples = 6\nvalue = [4, 2]"] ;
624 -> 644 ;
645 [label="gini = 0.0\nsamples = 2\nvalue = [0, 2]"] ;
644 -> 645 ;
646 [label="gini = 0.0\nsamples = 4\nvalue = [4, 0]"] ;
644 -> 646 ;
647 [label="X[745] <= 0.5\ngini = 0.308\nsamples = 63\nvalue = [12, 51]"] ;
563 -> 647 ;
648 [label="X[989] <= 0.5\ngini = 0.117\nsamples = 48\nvalue = [3, 45]"] ;
647 -> 648 ;
649 [label="X[152] <= 0.5\ngini = 0.043\nsamples = 46\nvalue = [1, 45]"] ;
648 -> 649 ;
650 [label="gini = 0.0\nsamples = 45\nvalue = [0, 45]"] ;
649 -> 650 ;
651 [label="gini = 0.0\nsamples = 1\nvalue = [1, 0]"] ;
649 -> 651 ;
652 [label="gini = 0.0\nsamples = 2\nvalue = [2, 0]"] ;
648 -> 652 ;
653 [label="X[273] <= 0.5\ngini = 0.48\nsamples = 15\nvalue = [9, 6]"] ;
647 -> 653 ;
654 [label="X[336] <= 0.5\ngini = 0.298\nsamples = 11\nvalue = [9, 2]"] ;
653 -> 654 ;
655 [label="gini = 0.0\nsamples = 9\nvalue = [9, 0]"] ;
654 -> 655 ;
656 [label="gini = 0.0\nsamples = 2\nvalue = [0, 2]"] ;
654 -> 656 ;
657 [label="gini = 0.0\nsamples = 4\nvalue = [0, 4]"] ;
653 -> 657 ;
658 [label="X[465] <= 0.5\ngini = 0.345\nsamples = 298\nvalue = [66, 232]"] ;
526 -> 658 ;
659 [label="X[745] <= 0.5\ngini = 0.32\nsamples = 285\nvalue = [57, 228]"] ;
658 -> 659 ;
660 [label="X[972] <= 0.5\ngini = 0.25\nsamples = 218\nvalue = [32, 186]"] ;
659 -> 660 ;
661 [label="X[948] <= 0.5\ngini = 0.233\nsamples = 215\nvalue = [29, 186]"] ;
660 -> 661 ;
662 [label="X[895] <= 0.5\ngini = 0.216\nsamples = 211\nvalue = [26, 185]"] ;
661 -> 662 ;
663 [label="X[147] <= 0.5\ngini = 0.324\nsamples = 108\nvalue = [22, 86]"] ;
662 -> 663 ;
664 [label="X[542] <= 0.5\ngini = 0.276\nsamples = 103\nvalue = [17, 86]"] ;
663 -> 664 ;
665 [label="X[1184] <= 0.5\ngini = 0.253\nsamples = 101\nvalue = [15, 86]"] ;
664 -> 665 ;
666 [label="X[226] <= 0.5\ngini = 0.145\nsamples = 76\nvalue = [6, 70]"] ;
665 -> 666 ;
667 [label="X[1193] <= 0.5\ngini = 0.104\nsamples = 73\nvalue = [4, 69]"] ;
666 -> 667 ;
668 [label="X[171] <= 0.5\ngini = 0.08\nsamples = 72\nvalue = [3, 69]"] ;
667 -> 668 ;
669 [label="gini = 0.055\nsamples = 71\nvalue = [2, 69]"] ;
668 -> 669 ;
670 [label="gini = 0.0\nsamples = 1\nvalue = [1, 0]"] ;
668 -> 670 ;
671 [label="gini = 0.0\nsamples = 1\nvalue = [1, 0]"] ;
667 -> 671 ;
672 [label="X[884] <= 0.5\ngini = 0.444\nsamples = 3\nvalue = [2, 1]"] ;
666 -> 672 ;
673 [label="gini = 0.0\nsamples = 2\nvalue = [2, 0]"] ;
672 -> 673 ;
674 [label="gini = 0.0\nsamples = 1\nvalue = [0, 1]"] ;
672 -> 674 ;
675 [label="X[565] <= 0.5\ngini = 0.461\nsamples = 25\nvalue = [9, 16]"] ;
665 -> 675 ;
676 [label="X[202] <= 0.5\ngini = 0.363\nsamples = 21\nvalue = [5, 16]"] ;
675 -> 676 ;
677 [label="gini = 0.0\nsamples = 14\nvalue = [0, 14]"] ;
676 -> 677 ;
678 [label="X[315] <= 0.5\ngini = 0.408\nsamples = 7\nvalue = [5, 2]"] ;
676 -> 678 ;
679 [label="gini = 0.0\nsamples = 5\nvalue = [5, 0]"] ;
678 -> 679 ;
680 [label="gini = 0.0\nsamples = 2\nvalue = [0, 2]"] ;
678 -> 680 ;
681 [label="gini = 0.0\nsamples = 4\nvalue = [4, 0]"] ;
675 -> 681 ;
682 [label="gini = 0.0\nsamples = 2\nvalue = [2, 0]"] ;
664 -> 682 ;
683 [label="gini = 0.0\nsamples = 5\nvalue = [5, 0]"] ;
663 -> 683 ;
684 [label="X[994] <= 0.5\ngini = 0.075\nsamples = 103\nvalue = [4, 99]"] ;
662 -> 684 ;
685 [label="X[573] <= 0.5\ngini = 0.039\nsamples = 101\nvalue = [2, 99]"] ;
684 -> 685 ;
686 [label="X[158] <= 0.5\ngini = 0.02\nsamples = 100\nvalue = [1, 99]"] ;
685 -> 686 ;
687 [label="gini = 0.0\nsamples = 98\nvalue = [0, 98]"] ;
686 -> 687 ;
688 [label="X[571] <= 0.5\ngini = 0.5\nsamples = 2\nvalue = [1, 1]"] ;
686 -> 688 ;
689 [label="gini = 0.0\nsamples = 1\nvalue = [1, 0]"] ;
688 -> 689 ;
690 [label="gini = 0.0\nsamples = 1\nvalue = [0, 1]"] ;
688 -> 690 ;
691 [label="gini = 0.0\nsamples = 1\nvalue = [1, 0]"] ;
685 -> 691 ;
692 [label="gini = 0.0\nsamples = 2\nvalue = [2, 0]"] ;
684 -> 692 ;
693 [label="X[416] <= 0.5\ngini = 0.375\nsamples = 4\nvalue = [3, 1]"] ;
661 -> 693 ;
694 [label="gini = 0.0\nsamples = 3\nvalue = [3, 0]"] ;
693 -> 694 ;
695 [label="gini = 0.0\nsamples = 1\nvalue = [0, 1]"] ;
693 -> 695 ;
696 [label="gini = 0.0\nsamples = 3\nvalue = [3, 0]"] ;
660 -> 696 ;
697 [label="X[427] <= 0.5\ngini = 0.468\nsamples = 67\nvalue = [25, 42]"] ;
659 -> 697 ;
698 [label="X[979] <= 0.5\ngini = 0.38\nsamples = 47\nvalue = [12, 35]"] ;
697 -> 698 ;
699 [label="X[404] <= 0.5\ngini = 0.245\nsamples = 35\nvalue = [5, 30]"] ;
698 -> 699 ;
700 [label="X[1186] <= 0.5\ngini = 0.128\nsamples = 29\nvalue = [2, 27]"] ;
699 -> 700 ;
701 [label="X[971] <= 0.5\ngini = 0.069\nsamples = 28\nvalue = [1, 27]"] ;
700 -> 701 ;
702 [label="gini = 0.0\nsamples = 27\nvalue = [0, 27]"] ;
701 -> 702 ;
703 [label="gini = 0.0\nsamples = 1\nvalue = [1, 0]"] ;
701 -> 703 ;
704 [label="gini = 0.0\nsamples = 1\nvalue = [1, 0]"] ;
700 -> 704 ;
705 [label="X[1147] <= 0.5\ngini = 0.5\nsamples = 6\nvalue = [3, 3]"] ;
699 -> 705 ;
706 [label="gini = 0.0\nsamples = 3\nvalue = [0, 3]"] ;
705 -> 706 ;
707 [label="gini = 0.0\nsamples = 3\nvalue = [3, 0]"] ;
705 -> 707 ;
708 [label="X[385] <= 0.5\ngini = 0.486\nsamples = 12\nvalue = [7, 5]"] ;
698 -> 708 ;
709 [label="X[931] <= 0.5\ngini = 0.408\nsamples = 7\nvalue = [2, 5]"] ;
708 -> 709 ;
710 [label="gini = 0.0\nsamples = 5\nvalue = [0, 5]"] ;
709 -> 710 ;
711 [label="gini = 0.0\nsamples = 2\nvalue = [2, 0]"] ;
709 -> 711 ;
712 [label="gini = 0.0\nsamples = 5\nvalue = [5, 0]"] ;
708 -> 712 ;
713 [label="X[697] <= 0.5\ngini = 0.455\nsamples = 20\nvalue = [13, 7]"] ;
697 -> 713 ;
714 [label="gini = 0.0\nsamples = 12\nvalue = [12, 0]"] ;
713 -> 714 ;
715 [label="X[756] <= 0.5\ngini = 0.219\nsamples = 8\nvalue = [1, 7]"] ;
713 -> 715 ;
716 [label="gini = 0.0\nsamples = 7\nvalue = [0, 7]"] ;
715 -> 716 ;
717 [label="gini = 0.0\nsamples = 1\nvalue = [1, 0]"] ;
715 -> 717 ;
718 [label="X[783] <= 0.5\ngini = 0.426\nsamples = 13\nvalue = [9, 4]"] ;
658 -> 718 ;
719 [label="gini = 0.0\nsamples = 9\nvalue = [9, 0]"] ;
718 -> 719 ;
720 [label="gini = 0.0\nsamples = 4\nvalue = [0, 4]"] ;
718 -> 720 ;
}
